%YAML:1.0
---
opencv_ml_em:
   format: 3
   training_params:
      nclusters: 5
      cov_mat_type: diagonal
      epsilon: 9.9999999999999995e-07
      iterations: 100
   weights: !!opencv-matrix
      rows: 1
      cols: 5
      dt: d
      data: [ 1.3107417311433275e-01, 3.7355261076039337e-01,
          2.4494462947644263e-02, 3.4963502718935828e-02,
          4.3591525045869300e-01 ]
   means: !!opencv-matrix
      rows: 5
      cols: 3
      dt: d
      data: [ 1.3078916383817571e+02, 1.9215609668510436e+02,
          1.4403674642233170e+02, 1.3070390274051914e+02,
          1.6374991337968686e+02, 1.0054590082647044e+02,
          1.2375063914830230e+02, 1.9450604090662213e+02,
          2.5499999999999898e+02, 1.5440414422788254e+02,
          2.5499999999999935e+02, 2.3412115849731518e+02,
          1.5051172047631928e+02, 1.8329316962563340e+02,
          1.0035878269690912e+02 ]
   covs:
      - !!opencv-matrix
         rows: 3
         cols: 3
         dt: d
         data: [ 4.5513421839260940e+02, 0., 0., 0.,
             1.1250036643864998e+03, 0., 0., 0., 2.4641501505741594e+03 ]
      - !!opencv-matrix
         rows: 3
         cols: 3
         dt: d
         data: [ 4.8573825314443546e+01, 0., 0., 0.,
             3.4353011402342275e+01, 0., 0., 0., 4.3945897384320723e+01 ]
      - !!opencv-matrix
         rows: 3
         cols: 3
         dt: d
         data: [ 3.3655341948609737e+02, 0., 0., 0.,
             9.1111276766039452e+02, 0., 0., 0., 2.2204460492503131e-16 ]
      - !!opencv-matrix
         rows: 3
         cols: 3
         dt: d
         data: [ 4.9199754727060707e+02, 0., 0., 0.,
             2.2204460492503131e-16, 0., 0., 0., 7.5996621347947200e+02 ]
      - !!opencv-matrix
         rows: 3
         cols: 3
         dt: d
         data: [ 3.0465608309089628e+01, 0., 0., 0.,
             4.8143499819683093e+01, 0., 0., 0., 9.3579596709539970e+01 ]
