%YAML:1.0
---
opencv_ml_em:
   format: 3
   training_params:
      nclusters: 5
      cov_mat_type: diagonal
      epsilon: 9.9999999999999995e-07
      iterations: 100
   weights: !!opencv-matrix
      rows: 1
      cols: 5
      dt: d
      data: [ 2.6689138921578431e-01, 5.9457965682236429e-02,
          3.1179792840243048e-01, 2.8102865269218869e-01,
          8.0824064007313429e-02 ]
   means: !!opencv-matrix
      rows: 5
      cols: 3
      dt: d
      data: [ 7.5055961107440012e+01, 9.9190569738752146e+01,
          1.6529912964620621e+02, 2.8202775377386956e+01,
          1.1322395591617747e+02, 2.5499999999999787e+02,
          7.9355284910821482e+01, 1.2134355729940245e+02,
          1.8196728072760439e+02, 7.3086656588386006e+01,
          9.8905842660168901e+01, 1.7355631126815146e+02,
          4.6419852700827242e+01, 9.7667749423545587e+01,
          2.1048045553392842e+02 ]
   covs:
      - !!opencv-matrix
         rows: 3
         cols: 3
         dt: d
         data: [ 3.2804266635136647e+00, 0., 0., 0.,
             3.7338627587974379e+01, 0., 0., 0., 3.4505599563717773e+01 ]
      - !!opencv-matrix
         rows: 3
         cols: 3
         dt: d
         data: [ 1.4223137397789051e+02, 0., 0., 0.,
             6.5558698599008835e+02, 0., 0., 0., 2.2204460492503131e-16 ]
      - !!opencv-matrix
         rows: 3
         cols: 3
         dt: d
         data: [ 1.2865783440811402e+00, 0., 0., 0.,
             5.4237721184351606e+01, 0., 0., 0., 4.0197336236795856e+01 ]
      - !!opencv-matrix
         rows: 3
         cols: 3
         dt: d
         data: [ 1.5225009374714260e+01, 0., 0., 0.,
             2.3548809562490058e+02, 0., 0., 0., 3.2664673977897627e+02 ]
      - !!opencv-matrix
         rows: 3
         cols: 3
         dt: d
         data: [ 2.5924090705420679e+02, 0., 0., 0.,
             8.1052850893249536e+02, 0., 0., 0., 7.3105831784167094e+02 ]
